ach_3GPC_fnl0_sim40_biasMatched
0.022726934671318578 0.011524151825519902 0.005988429669689976 0.003281622829333453 0.0030910409791500303 0.0038577274809213995 0.0027367806672890997 0.0006226518222850302 -0.0005915308091350498 -0.001007044628993661 -0.0010369851264858995 -0.0008418503735377449 -0.0006948996177228068 -0.0006035027145961741 -0.00053915252615471 -0.0004652784949309376 -0.00038942857841098896 -0.00034929541986006627 -0.0003641435139496107 -0.00037435809566663486 -0.00039359958308513753 -0.0002784518155653825 -0.00020675158578784483 -0.00014965657108592287 -0.00011371007757678462 -0.00013153945328459014 -6.952291146763255e-05 -2.8247052662214147e-05 8.184733075614375e-06 2.3033046673626143e-05 6.38481390446667e-05 8.258452819393407e-05 5.8443964695187255e-05 4.917205289436105e-05 2.778026745895397e-05 -1.4485076504728179e-05 
0.46338742920820486 0.3214165710722354 0.2365941837447694 0.17827430917337053 0.14357750745288814 0.11428572597841977 0.0952529723380945 0.0794873859645831 0.06826052901267811 0.058895547250853664 0.05102356680714901 0.045342545500762374 0.04036527225064317 0.036186539097605906 0.032641250241654436 0.029775480430332207 0.02711026604166952 0.024840802390883324 0.022708884912702076 0.020990978537552035 0.01940024666701339 0.01807785014105291 0.016779260384895744 0.01564761082053417 0.01472487017168187 0.01383525983504085 0.01305990231057712 0.012339690112397593 0.01165166444356297 0.01106704142091481 0.010504504170767308 0.009989282683050493 0.009482008310918217 0.009007119792772359 0.008607832128984569 0.008203055364211677 
0.7813015756586591 0.31394043042519326 0.14916933700590795 0.0779391852733599 0.05396285064198147 0.03930674771464791 0.025364818807847345 0.012282022500142984 0.005726686510169217 0.0025514020216865375 0.0010683499174867612 0.0007417472330370471 0.0007625750759624174 0.0006841355101416893 0.00035271368179223985 0.0003038507340996799 3.3098270747633664e-05 -0.00010693222207193079 -0.00027464018278656484 -0.0002969560923808699 -0.0003488590646872567 -0.0003174294044782191 -0.00027048160904295874 -0.0002752408939273842 -0.0001683583073878231 -0.00019705664195317923 -0.0001441575377100361 -0.00013238243539877311 -0.00011209295394554416 -0.00016972176675232505 -0.00011605108018844775 -0.0001387364750402977 -0.00019975829570125262 -0.00020478550132902842 -0.00020574482278147894 -0.0001687838120835719 
13.105415023964355 5.73729055553005 3.065211633016069 1.7197080166643242 1.1508216247335594 0.7471883031579685 0.48797653153000237 0.33524565088524005 0.24694664079841955 0.18493085429097517 0.14007903308900715 0.10922509441027178 0.08696100058961102 0.06899322296390596 0.05595827779584827 0.048369998773136955 0.039207978106117064 0.03309351776841917 0.027526851284995837 0.023748115694028838 0.02043686140813972 0.017600763298504296 0.015099682315763098 0.01313438433180435 0.011728722007613778 0.01050162589247192 0.009358897217460983 0.008373277565680513 0.007365056247763037 0.006621804831210016 0.0059506195195764815 0.00540880854336827 0.004906482438542986 0.004472176410489153 0.004078890370076409 0.003699769747223671 
107.09905092560999 27.58035143425815 11.33056433599075 4.71476100145587 3.7185460376287285 2.849178039273144 0.7643955318862569 0.33541553932822077 0.17450613567466652 0.10399782200730548 0.02801313647873981 0.02797030044989878 0.024243698492333876 0.014821445772182666 0.009184359049299918 0.010323187857734334 0.006838346303402923 0.0037471424455043623 0.0009386119258699811 0.0007106571687983653 2.5573372753321532e-06 -0.0011282453168646547 -0.0006591150531505256 -0.0006378311287818757 0.000502147373299906 0.0007361079644446904 0.0006305911582757568 0.00048545756398707493 0.0003147214352299834 -0.0003738026396123671 0.00018169507151158818 0.00011034919559745586 -0.00030384220104339734 -0.00032047538441861686 -0.0004403950293391681 2.9042868157188307e-05 
2075.2696812500894 492.53344149737666 214.66539119692254 87.80308326748944 85.04979998629881 72.12219820979487 12.28549041403431 6.893335814621605 4.36506137367672 3.092039165075101 1.970736344153017 1.298801209274276 0.9428551174601671 0.6481013753950786 0.44604985668154906 0.4190246789933267 0.2920787482401011 0.21893939952357522 0.15590358470718932 0.12447976495975725 0.1062233265500463 0.08195188289724939 0.062295053688582146 0.05172178326220919 0.04404995522492397 0.040199891041995 0.03352617195506897 0.02850357023078218 0.023732072970430385 0.01954019278346693 0.015905286133927346 0.013684659959321409 0.011716197763344535 0.011325470155902196 0.009854528936556424 0.00775099607719371 
35550.42515217745 4693.09888341781 2022.6241666202116 620.722077314391 1596.303417739288 1780.5858585601663 47.51389042803531 18.237946924671093 9.527218264993403 9.075994116228998 0.6690196917479304 1.4372900046029038 1.023926641513508 0.34466466068786156 0.17995235979410798 0.42562718748298306 0.4311172460199065 0.27191308062339636 0.03970777816380571 0.03482166675697544 0.02421327488785532 -0.027089021521156303 -0.013132658750603834 -0.002594443377971331 0.01097401353459416 0.019745860371722317 0.011986482608243535 0.007224836152734288 -0.001451540828165461 -0.00903915534812507 0.0022808326962643743 0.0034090986686457735 -0.0014853674930603653 -0.0022713594978013246 -0.004893477370215675 0.0014169197313132157 
