ach_3GPC_fnl0_sim11_biasMatched
0.022218036467226265 0.01115028006903985 0.005557741367296699 0.002916516456171341 0.0030243111448830027 0.003809833105574665 0.00259856469267389 0.000447602277626643 -0.000763868036205627 -0.001126768204499827 -0.0010796960514125368 -0.0009831870843570692 -0.000767615591846229 -0.0006972199400123023 -0.0006060096822736072 -0.0006214167369037071 -0.0005622207206799715 -0.0005405120024172342 -0.0004901114742677869 -0.0003910342738029493 -0.00028057455145886676 -0.00017939605531152735 -9.291772794741496e-05 -7.041296869889097e-05 -8.941749431017377e-05 -0.00010403193290402639 -5.376445450344331e-05 -3.954376631632305e-05 -2.6442428566281528e-05 -4.593805509426013e-05 -1.4490714113465652e-05 3.0597400894941815e-05 5.001892046631007e-06 2.393892633814603e-05 -1.0588765719639573e-05 -2.002472081810667e-05 
0.46107378227373336 0.32023421856156115 0.23601090401774868 0.17770039682849684 0.14250832559140295 0.11314109037626907 0.09369533322518683 0.07817646576844244 0.06710569557741078 0.05829686294285349 0.05028977952082464 0.04471635477931578 0.03975601302683276 0.035549000093550706 0.032024098328938 0.029180421371854053 0.026588452812816816 0.024441444369403577 0.02240739229165805 0.020668642196452303 0.019088394891972168 0.017848480104922192 0.016641502316205238 0.015597059098675483 0.01461729233598322 0.013720931259543623 0.012986807953772186 0.012256972016506475 0.011575116334047215 0.010979184487823033 0.010448114240837367 0.009949522657132287 0.00945019810260825 0.009044948166323688 0.008658652743961636 0.008267579519104458 
0.7853325193308905 0.31673982197079753 0.14507539445754752 0.07491380326495437 0.05096992892897712 0.03696744773255795 0.02264386576035645 0.009975508601745736 0.0034810280352574954 0.0016334462704071678 0.0012311400039597782 0.00017589070655490708 0.0001876836387899824 -0.00010242216827102014 -3.201363410746647e-06 -0.00027961469397181266 -0.00027140465054959395 -0.00034155663038015315 -0.00046599908639134057 -0.00039947240928446813 -0.00029613519889260627 -0.00017346720356694603 -0.00016343834016010968 -0.00020882493164963936 -0.00018831800188128173 -0.0002628826571877544 -0.00025705925522975646 -0.00024486853649969485 -0.0002183762170748482 -0.00022697775434262627 -0.00022441872967356112 -0.00019826876954665929 -0.00020243336155994167 -0.00019816439098816946 -0.00019942560744908247 -0.00020107265745908533 
13.322521340798467 5.811318900018069 3.060885142895989 1.732666060505655 1.1100982889826 0.6870200787556875 0.4732613625697789 0.3189801514609047 0.23945947826911224 0.17994634740999246 0.1329729296233926 0.10469432608334785 0.0837614474093392 0.06628079526200549 0.05382218434647167 0.04489832651968817 0.037796300570667324 0.031614901199095324 0.02644707280226726 0.02271283229747892 0.019213318530978966 0.017087609078023664 0.014716154866720309 0.013054307103406174 0.011550174832776917 0.010141113081686984 0.009223221857951576 0.008180083225368376 0.007387392389932086 0.006536261000386254 0.006079433503112671 0.00539166737404352 0.004914685332285274 0.004519495525519964 0.004095637439555945 0.003764724822724531 
116.40035318233328 29.976965809942993 10.804431686470018 4.463971860632171 2.374635046424728 1.2487852961756005 0.679545775559582 0.2744686362503964 0.12285901388007091 0.05495409207178056 0.05732309461188296 0.02665298991872255 0.024161877029737305 0.011175151901465195 0.00543539740213308 0.004439507604059021 0.004206368023200664 0.0016979238127048065 -0.0013164194497264437 -0.0007618933594062726 0.0001730012981523386 0.0015189379588955339 0.0012127408906232476 -0.0004745634263076428 0.0005973451561129307 -9.410832009288216e-05 8.049342123929826e-05 0.00021270123272920815 -1.4354047445513293e-07 0.00015953502570944953 0.0002280369539544929 -0.00033640808945527864 -0.00031359658433504007 -0.0004246245775792121 -0.00027725925237758495 -0.00018818141406835485 
2353.832843541112 554.0915274888323 201.15556313856794 85.32287351957315 43.38463160060079 19.884363162985935 11.956161366519302 6.042274284075657 4.174367652819769 2.647459539909557 1.6589706859412034 1.1402924689378862 0.9301731215364493 0.58813191068253 0.42719903824592276 0.3221635904134298 0.26083290611090093 0.18631250496173296 0.14478279375578532 0.11636906345082101 0.08907869942838877 0.07823925497269514 0.060076079757557195 0.052297170886154064 0.04345110501481359 0.03583108198885394 0.03285162125202587 0.027055884694749562 0.02291546063926969 0.01873664192372773 0.02096515449124441 0.013277261213570478 0.012582864909578568 0.011310332143798965 0.009048985005713165 0.00815510933844226 
44243.06603934782 6278.166596087396 1787.9847021852624 550.0119817784063 232.63829248415703 85.19802808092344 40.39270396728636 13.157428828505193 6.953455711945515 0.9814170578891446 2.5633791557148933 1.307765785797429 1.889888630059459 0.49619669620845397 0.07946498885607509 0.135957026480297 0.1690871974796354 0.04811010011591361 -0.05488217328288539 -0.013822881973880725 0.0037457115187644044 0.03628804535573368 0.029784420842111005 -0.020151010420258172 0.007615381983083583 0.00011275276034761176 0.010117120619222496 0.015084267986577797 0.004478459524054147 0.008398778890481871 0.02643015408047146 -0.00152867806599675 -0.0016450304176342627 -0.004767171408705472 -0.0015361772141910296 -0.00032054953581268225 
