ach_3GPC_fnl0_sim42_biasMatched
0.021959105724836198 0.011298948227729427 0.005789569133807962 0.0030256016784246022 0.0031417247728707533 0.0040196110930390844 0.002544866392221576 0.0004028943484196093 -0.0006568987739474364 -0.0009902979772924273 -0.0010136639626100578 -0.000888160631254655 -0.0008382190175275335 -0.0007375926889372259 -0.0005651312591955757 -0.0005271304319470312 -0.00044799645140133595 -0.00029993081488170824 -0.0002403153594776471 -0.00024180309451020816 -0.00023954519834762118 -0.00021252865241745523 -0.00017351331043427454 -0.00017762010454716712 -0.00015113848795660843 -0.0001258482630369153 -0.00019573533478745432 -0.00016495529434194063 -8.605980729845566e-05 -7.818031309126568e-05 -6.0211364250202724e-05 -4.829014700034547e-06 -1.0059970830464224e-05 4.171314844268136e-05 3.0379571625908505e-05 6.582059567923252e-05 
0.46226290606919773 0.3210657000588209 0.23673650709152017 0.17879514573884625 0.14303209896406816 0.11395636035340417 0.0943506139619178 0.07887922653770305 0.06802030367434322 0.05890288151972019 0.050944404706057766 0.04528123365126685 0.04019006457303 0.03600819847693736 0.03244129209353058 0.029412167399746485 0.026818727752083094 0.024629395452422202 0.022567956199735912 0.020805714168175695 0.019208207077941616 0.01791376659027555 0.016669752817253386 0.015564774717511443 0.014611903552338948 0.013726178985479778 0.0129135433881466 0.012172504632634381 0.011476822914675812 0.010958132772194132 0.010422024913405816 0.00990534760843067 0.009434596984545714 0.009023745552393632 0.008617200520129695 0.008245060835387294 
0.7739630620410108 0.3247748337816449 0.15729621219852377 0.08078354696085498 0.05373155252121086 0.040076998268530915 0.024236782712044432 0.010123352498306853 0.005068224720836768 0.001923584680802013 0.0003338269655354202 0.0006244291161742773 0.0005800895029887205 0.00040800553889575926 0.0002166425759724144 0.0001557477090012291 0.00021096723839281027 0.00013778791571782706 0.00024024262908468614 0.00019890434340953176 0.00013036567735320886 4.518306798978674e-06 -3.694188891749571e-05 -9.594942164349331e-05 -0.0001491761905436436 -0.00011663364217307781 -0.00019501717030891174 -0.00018952263660186347 -0.00012064977729798472 -0.0001251943600241236 -0.00015439771194859388 -0.00012425234102250582 -0.00014528786631635282 -0.00011702552436890524 -0.00010623520020590349 -0.0001324808125175191 
13.270848024822826 6.022290891031323 3.192760595467498 1.7689627424941492 1.112754165515928 0.7056994083623356 0.48203981031584936 0.3275203950324906 0.24523738771732445 0.18152456396212782 0.13697507720848795 0.10869338914984172 0.08616889187009061 0.06900304148628192 0.05633955759728664 0.04560211730509409 0.03875243169926612 0.033356232785217384 0.0279760226667131 0.02371513725290617 0.01990023243973932 0.0173484747328037 0.015286250388794748 0.013187284468613284 0.011660312513741805 0.010322824189600262 0.00915425983115682 0.00821595513491617 0.007136190743448928 0.006727703860981966 0.005977697865736167 0.00543690835686045 0.004993541873550006 0.00462508142880658 0.004080782432366946 0.0037573195878392407 
112.5925051455295 32.69296214086849 12.552857797011894 4.820201855124921 2.4966688827196406 1.4036737928210912 0.7137319498731431 0.2746422926784849 0.16331810656800047 0.060979202116075104 0.011739611306933247 0.029061331471084327 0.02506488161179154 0.018990355720493644 0.009056574866697534 0.010230491687359712 0.007384650033517313 0.0022700675236154546 0.0033649169602567347 0.0026288959139319766 0.0034463559826181864 0.0021412024610169603 0.0005479862227663605 0.0006223935459296835 -3.990918505437154e-06 -7.543674177441801e-05 -0.0004048212645995554 -0.00034739721259792727 0.00017760418581868476 0.0006493066832513914 -0.00019135587300579538 4.909097046318363e-05 -0.00020288673287267557 -0.0003197120614760329 2.9899235281960848e-05 -8.266003893986466e-05 
2321.6109204825 612.4001776608183 235.9105081482376 87.81159864659645 42.474515658428786 21.257799165417925 11.994256681405261 6.632586865095713 4.2644211391023 2.5636374298249165 1.671806265797484 1.2227786568449317 0.9242043792919987 0.6583892786945733 0.46566552856985366 0.33796054509613677 0.2708054599017033 0.23846965590315622 0.18747845546850508 0.14609470194381266 0.09653443633377495 0.08119634606093926 0.07106903091211353 0.05504514091083539 0.04497444344984781 0.0379788829192847 0.03081138651203314 0.02710588591766629 0.02061323802350064 0.025005719417002185 0.01582473077115485 0.014019980153047246 0.013508527168176411 0.01261902145033532 0.009201019404963606 0.008033798048893669 
44506.974546434365 7361.582738023958 2250.053601658336 553.504747075133 238.53189877848175 101.62352886499565 40.94115690712406 16.715774983855503 9.268285851370761 2.7267484062074225 0.08558569180331531 1.3129947025251942 1.1215963804220053 0.9039238233561384 0.1777557438454045 0.4167370509990605 0.1525053943507474 -0.05851549648191949 -0.0689527111816 -0.08546097637159629 0.05785274486952345 0.043814801733672 -0.0013411720342079954 0.008584126965186555 0.00348020422301944 -0.0024444711977027267 -0.003997944762528925 -0.0037167133169048617 0.004354714954825666 0.041675279607264804 -0.0012905893781687621 0.002236617762506473 -0.0023306336004751045 -0.008107740922180633 0.0009822779328623724 0.0006093490532904347 
