ach_3GPC_fnl0_sim17_biasMatched
0.022827686836768588 0.011724629408672346 0.005901503932381238 0.00297450621518811 0.0028100471721618993 0.0038353572275446747 0.002696259058929203 0.0007402202047135137 -0.00034282024967636994 -0.0006101527023809338 -0.0006380794656558956 -0.0005241835599504148 -0.0005262602959559344 -0.00045507919808670936 -0.0004047822133787496 -0.0003244610489090226 -0.00037686334553115643 -0.00034544714998705953 -0.0002685833899649678 -0.0002474048870272994 -0.00016916668185204986 -0.0001387706783634106 -0.0001516609897123812 -0.00021216830905505628 -0.0002487775065630633 -0.00021187453475458057 -0.0001790860195688273 -8.218965813093133e-05 -4.086325588444347e-05 -3.156158162427102e-05 -7.287482788941426e-05 -8.324352532028417e-05 -7.939129602956866e-05 -4.267567782561167e-05 -2.7472359700883876e-05 -3.658415287544205e-05 
0.4665710118171712 0.3251782928093205 0.2394708943892527 0.17996230449566833 0.14545903911783367 0.11596578880070701 0.09655023848737473 0.08063391782323798 0.06939640122138745 0.060181441054922416 0.05177670646075053 0.04598734733236654 0.0408923849403453 0.036531374025709745 0.03293837340742352 0.029900535803754208 0.027170019058323173 0.024889101171372604 0.022790069891474266 0.021085123959551536 0.019504931325193535 0.018239543037174163 0.016927151873152288 0.015782799255956808 0.01484993918512449 0.01396510265760354 0.01314283648187464 0.012419613880042061 0.011679911405126297 0.011076696519971426 0.01046250531481973 0.009939393464910094 0.009438454969626009 0.008992512298643977 0.00859232240659014 0.008216295940037718 
0.8414782713142578 0.3506425520243169 0.16314639034658854 0.08105099695763988 0.05464689161519182 0.041024376480446136 0.026896929367044516 0.013698061508226292 0.006713198876845747 0.004502283700807718 0.0024588408489172073 0.0017642233775688714 0.001349019323062774 0.001006275709086028 0.0003768602239339524 0.0004983006345307147 0.00018208938629329008 0.00013028657128617122 2.048116810749826e-05 -3.1461274734220246e-05 -4.102021384758858e-05 1.1983494763490645e-05 -0.00016450348504475166 -0.0001594040649833704 -0.0002552192411653814 -0.00024117672771753145 -0.0002329846686483231 -0.00018176291640493536 -0.00019722571546986533 -0.00020220693196053207 -0.0002118060740344543 -0.00023229526313906114 -0.00024467070327391133 -0.00019820966886775258 -0.00019252296160634713 -0.00020729340648049336 
13.946693054580912 6.180468795049164 3.277885821171639 1.7734725115955323 1.1508840309177077 0.7406160769897715 0.5150775048610139 0.34923154921799765 0.25546926373411294 0.19594255417416626 0.14208323393997344 0.11299253988791923 0.08985267481486348 0.07090598972319788 0.057796261504422304 0.04783962463209584 0.03939563158239252 0.03342085556835907 0.027891025670856582 0.024237088910283068 0.020733935075153743 0.01838540673521442 0.015615324861890104 0.013474697193917346 0.0119505797328172 0.01064236103413068 0.009345429307369708 0.008400950871332465 0.007459306433936231 0.006735117061701289 0.005923267819985197 0.005406062182616418 0.004940410388066357 0.004469717906085606 0.004002524833358274 0.003676774353209962 
124.66496690914175 34.31437632596775 12.409710913225894 4.68805107404171 2.4877387028317877 1.3786286356824962 0.8775709650317575 0.4246512369945467 0.16623325205030434 0.11481315478838078 0.050669847661610465 0.021048307029860196 0.02764676997002954 0.025818017455696656 0.002957337469574862 0.009594566199069014 0.004036383352002897 0.004710362494576109 0.002731140845321308 0.0025635344822489436 0.002133136693867072 0.005344662647601513 0.0018807498173010972 0.0014351674188877626 3.552722357304124e-05 -0.0007999869710842142 -4.569935553601154e-05 0.0003081310410632986 0.00017052616622689352 -6.87885688201008e-06 -0.00012024669316236 -0.00044312809914334543 -0.0005741274626880705 -0.0002867772503166083 -0.00027849788330593263 -0.0002457393601843704 
2466.14931712959 628.1597488125147 258.4042295454368 87.03669105110363 44.854269531187484 23.626833223968656 13.954917092881121 7.701963440697295 4.537355848302942 3.144914659774994 1.8326217344463611 1.3618450766617767 0.9896340446968269 0.694506273035372 0.4812828590998888 0.35978731334944436 0.279874808286528 0.2225360623309574 0.16679925810313506 0.13715165241914806 0.10624173436320519 0.10648546201451288 0.07851386879750236 0.06516682381919865 0.048344133594463164 0.04184874503071153 0.031568057306570606 0.026812201954562697 0.025061555404034763 0.019712793990393763 0.01552727763923884 0.014249716257613284 0.01298965181092326 0.010435069106602997 0.008624507530143898 0.00810985622009131 
45128.036362415856 7156.730622664167 1781.117726262988 529.3326057657101 225.7792493004978 95.3588173415552 60.40220491722367 29.15482903521347 5.792533346834626 5.136458344281951 1.5967604722774944 -0.47472752320119466 0.7634116257559651 1.2795080850145493 -0.1519560360865458 0.2286127057590168 -0.040935535264359314 0.10589199702383731 0.043278484927171665 0.06136261897360905 0.03829277714380606 0.238247027129304 0.11155570536926093 0.096804161350187 0.025933620988596192 -0.03259414545780481 0.00312882238826503 0.009057484506947648 0.0182919733411637 0.0048232720436362135 0.0016070906917615793 -0.0035795573851573935 -0.005230692556640816 -0.0018004523443379001 -0.001242088366705426 0.0004375466389894606 
