ach_3GPC_fnl0_sim65_biasMatched
0.022637750854200424 0.011756940035572878 0.006136184303903255 0.0031120767114954585 0.0028763889685051603 0.0036976495419016775 0.0024794432922392398 0.0005441079470442246 -0.0004068756231981309 -0.0006689526359590886 -0.0007075071929080739 -0.0006146583838530256 -0.0005350019362655524 -0.0005527918172156144 -0.00045464222195393424 -0.00027583077552251314 -0.00018945212158699235 -8.092182232460386e-05 -8.468149092707217e-05 -0.00011094262051382336 -0.0001156195485239278 -6.0958522062665716e-05 -6.134233203119256e-05 -7.442089814514418e-05 -1.408412933008721e-05 -4.456282517177097e-06 -1.6416874413692316e-07 -2.740277492542535e-05 -8.86894308510722e-05 -0.0001087262772126666 -0.00013747285464257638 -0.00013698060142072172 -7.244446963142046e-05 -3.246812609473249e-05 -6.35844836637938e-05 -6.67692445189234e-05 
0.46396716167432195 0.3237774073322389 0.23838800601857868 0.17946796602742943 0.14494398736610523 0.11559858621546155 0.09596038080275036 0.08062523721225694 0.06946355478184234 0.06043952657317076 0.05245346417176132 0.04686556607100696 0.041569956308288546 0.03724515633892717 0.03347699463236378 0.03024881112768765 0.027499401680876147 0.025290021395859282 0.02315558778271981 0.021459722797104824 0.019903392749652176 0.018590633997894502 0.017234538891924958 0.016093630845216 0.015093291698279129 0.014188399502399359 0.013357422164839797 0.012536597071734667 0.011833429022178215 0.011210457180684974 0.01063644506176624 0.010142033960184612 0.009672631451774265 0.009199049075038216 0.008797840021532652 0.008439201348299279 
0.7849116786300362 0.3265535493557627 0.15235339406075354 0.07140965883359868 0.04992361993815329 0.03813018499488962 0.023079567940558925 0.010851574030727734 0.005617704257200176 0.003294202614063113 0.0018624889109785919 0.0010351795803404922 0.0008677816131890925 0.0006216150077543021 0.0004339389990994432 0.0006287082474320958 0.0006458808285357568 0.0004839578713602391 0.00028192855950580364 -7.3129006996068805e-06 -0.00015113592830917928 5.493274829709628e-05 8.362140128829385e-06 -6.395582005049063e-05 -2.586599001776844e-05 -5.610234770761307e-05 -0.00010151396349297833 -0.00012220468639568183 -0.0001525916526721717 -0.0001610368856631688 -0.00019472053468833954 -0.0001275570563481944 -0.00014363575068512748 -8.459932893432794e-05 -0.0001174908648814812 -0.0001631460547439663 
13.066552856915848 5.997976927738677 3.1559312608190555 1.7281235367857273 1.1312701027494896 0.7269352126799683 0.49433258548360837 0.3424283705559973 0.2556968559798174 0.19402168021077668 0.14626735637834526 0.11625707989553674 0.09293354753989289 0.07500502202478668 0.06035072590825263 0.04906792128928504 0.04137448521094173 0.03525706525242401 0.028942620483439534 0.024812020359982367 0.021546079534750448 0.019123055650510357 0.016198079433578632 0.013916140937132287 0.012477490005901029 0.011105831341087457 0.009939917048934727 0.008615276966288953 0.007790140088248357 0.006960498510549408 0.0062694771265413615 0.005643510351096312 0.0051959306285117475 0.004595608765397994 0.004284659748311718 0.0039581277014698445 
103.94983188957804 30.696793312486342 11.287638875017624 4.004190626366772 2.2007019320866252 1.2796060111589116 0.6846470341799968 0.29151976506981814 0.1595244428438522 0.09158182423714047 0.04826113306175478 0.021313166204345816 0.014679596874379898 0.01634139710748228 0.007383057173449868 0.0124535302243163 0.01183890290807497 0.008570867574632202 0.005792082590612699 0.0009382043409860775 -0.0005731229259425504 0.0033795760552976497 0.0014545893108279231 0.00034617461695886234 0.00041573353520873974 0.00013974889051370838 -4.925840520838025e-05 -0.00025989273650548443 1.7718459812416497e-05 -0.0002397821320856874 -0.0002743665616132684 0.0004213873046800871 0.0003326848523516306 0.00016534217127758122 0.00015292982986634754 -0.00031934697883982747 
1913.6430975317007 561.637426810238 212.1250003551648 81.1458530728027 42.572284766478 22.618354320185034 12.209632653466798 6.723538876032832 4.540355395277247 3.067739207114997 1.9619243975298861 1.3548725965048536 1.0846996972326435 0.7351769208642291 0.5239969252500053 0.38112957441188827 0.312029282484848 0.24432046288295883 0.17738545400351793 0.13555036712987478 0.11308775433928589 0.10135918061246235 0.07089913117693059 0.054570462047558235 0.05113543471821988 0.043996634059900716 0.03846886507902536 0.027926662516501354 0.026355349689428518 0.02169266748544782 0.018342085361524416 0.015152654782963071 0.01580431212765357 0.010364199252169264 0.010568268380993142 0.009584684618543544 
29279.853320840175 5942.171805011355 1698.7012340622518 467.2666856276275 192.88450327677575 80.59210127942049 43.77648233436113 13.49249368610399 7.4714327396126325 2.368622617027601 0.27136194439260697 -0.0017725337506222637 -0.5527089948358628 0.32072736704460075 -0.05665790000406657 0.31381482700185814 0.26316100052737 0.17255503690759996 0.15285894793918572 -0.004917412600532711 -0.02464155356312185 0.08712434440270626 0.02267825352593638 -0.004642155280228849 -0.009515126742405306 -0.006085012664376369 -0.007167886601932548 -0.0039508349826432 0.003497769964378903 -0.006979092887606518 -0.0015035804353367625 0.0077847322623234684 0.019518277313867453 0.0018958509179246776 0.00466680099661058 -0.0051206876846237835 
