ach_3GPC_fnl0_sim84_biasMatched
0.0223824671401433 0.011542027025843301 0.006119627631356129 0.003214215465546121 0.002989241602365443 0.0037086152816823005 0.0025442754930496752 0.0005090673703910671 -0.0005543200588977738 -0.0008321038803195027 -0.0007535789198270334 -0.000725695825953113 -0.0006786179052691367 -0.0005525871330558451 -0.00045029902397181014 -0.00038615608735063586 -0.0003293970247803857 -0.00023386315009767274 -0.0002554305025154073 -0.0002524500689162665 -0.00014696094704092947 -0.00010538590067329069 -0.00011561273915969548 -0.00017053654776959059 -0.00017901490107260162 -8.150039785134456e-05 -5.510278470757574e-05 -1.945031645496204e-05 -5.777874888770329e-06 -4.093817023701729e-05 -0.00013472225407859135 -0.0001663235826952323 -0.00011999992157097817 -0.00010774383299775445 -0.00010748227045593576 -0.00011746810393103563 
0.46369932854058604 0.321605339864212 0.23613211202051765 0.17800145767785922 0.14330006132696785 0.11467097446773418 0.09516321324954904 0.07931307071990029 0.06848391898963077 0.059255642379089285 0.051396760368222286 0.045785043867445994 0.040717868565179956 0.03629929198953261 0.03253732489899377 0.02956423713865795 0.026906699340257727 0.024594411594470896 0.02256138047915011 0.020896351212105993 0.0193683831058744 0.018090752154421578 0.016780748395734835 0.015691630515136876 0.014721742210571716 0.013830757141146843 0.012983732716818177 0.012172384466180583 0.011459188497157472 0.010840580323570728 0.010269631242839012 0.00979674947136947 0.009318972742886098 0.008853791130425585 0.008456633087749707 0.00809226225031497 
0.788359405412363 0.32938946350309817 0.15296009315202577 0.07628502270056872 0.05075393663549955 0.036904700299085345 0.023107091800249255 0.009944770438166729 0.004687513305475452 0.0026893581297681448 0.0011923863702063416 0.0005135780859312805 0.0003722204249847456 9.482396547685997e-05 4.6641173722069956e-05 7.933643906136104e-05 0.00026642831775966605 9.772769269196136e-05 -0.00015809752956445801 -0.00022575443253759398 -5.2971881824704686e-05 -7.586141070283436e-05 -0.00014562849414104362 -0.00012693066908485095 -0.0001356708835018418 -8.809633636821722e-05 5.617955142670238e-06 -4.7699965179685814e-05 -2.1290008941602387e-05 -8.047323356135472e-05 -0.00010139798325179191 -8.481766222174063e-05 -9.75145471972701e-05 -8.527182106230817e-05 -9.55702321879074e-05 -7.387454536713812e-05 
13.322614198701894 6.019811050930344 3.1488152362581796 1.7251754996675213 1.1129624677190904 0.7187443815324075 0.4863496874459514 0.3319439650836228 0.24858057424104263 0.18923442931693293 0.14005533466842657 0.11171546180949667 0.08837112939633322 0.07000617702372076 0.05698793362223021 0.04650752302653713 0.03887728490314508 0.03223279256889242 0.027296166679095877 0.02339125548921321 0.020081092916636584 0.01769872146095808 0.015351377823657667 0.013505979162766994 0.011742770976386934 0.010223594933136886 0.009097246208696794 0.007992360334280222 0.007167428979720449 0.006302103135529956 0.005803256217978204 0.005330274724771001 0.004756186382824696 0.004304994920362439 0.003932979192798551 0.0036565772539792585 
112.5912816305839 34.653880587572296 12.08380414749886 4.591910644764346 2.4127008572618673 1.2838130997158155 0.6659495159686877 0.2409389534274037 0.15427987080272568 0.11261395970703472 0.042594915575731626 0.026854163454291594 0.021156231154363388 0.010338128229209324 0.003725910376014203 0.003562431434998289 0.003232359876491804 0.00041650125828237764 0.0009547721848921223 0.00016609031975329226 0.00039829900659913656 -0.0012906485034769638 -0.0002618281497976984 0.0008772710091272877 0.0005707451000823695 0.0003986391950088505 0.0013478282213304246 0.000457491736900133 0.0007723820589602679 8.704852145054882e-05 0.00018573361535232665 2.8208160820148463e-05 -0.00014934263089977877 8.295849540470531e-05 4.714849322849542e-06 6.513730336715957e-05 
2228.8594421774646 645.5343008392698 231.57687543439053 84.01571697454185 43.89427523844872 22.32471148704929 11.947883724651636 6.522795497898857 4.2899928181049445 3.0703228464813344 1.789431609984665 1.284906560772624 0.9251556298003499 0.643955334470026 0.504939278232183 0.3530533163274164 0.2990658413335115 0.2062927786150363 0.16118268161257984 0.12098768843138163 0.09462228157863631 0.09842269578624956 0.07387653232442616 0.061497099508570165 0.04521278302816583 0.034269263568232296 0.0306373712071432 0.024582053463975448 0.021857691677395152 0.01752728899255902 0.01621176775411902 0.01474345659930073 0.01112963583610217 0.009894042493145036 0.00908513131116731 0.008486390810700722 
39548.092984530296 8591.934562239887 2096.228436627924 559.6963824571732 273.14616713764343 89.70023288485626 35.68817124486344 9.005143767195678 7.455202389512257 7.371879853396068 1.9486801442077306 1.2570712658004684 0.8746428356145857 0.34043199230834403 -0.03430193273234607 -0.07802575369882063 -0.2270379367581072 -0.10450422782062403 0.0027389958117710386 0.006344985695329401 -0.006904983485492588 -0.18744987701942845 -0.007994086464629242 0.02350936214866003 0.012463608563882952 0.008534488023683569 0.020999889276699428 0.004532709115258152 0.010393875873872973 0.0006150137012454177 0.003941662934170183 -0.002216348419983236 -0.002219747446000791 0.0016311736282548493 0.00042684079834257976 0.0005200104841270456 
