ach_3GPC_fnl0_sim62_biasMatched
0.02200264891173771 0.011366278566364242 0.005912173441981673 0.0031360061311451535 0.0031150920147241987 0.003907175430675092 0.0024353729974468286 0.0002667262759545508 -0.0008967370325978976 -0.0010548003516571652 -0.0009886472559146823 -0.0008329577558451917 -0.0007619483270196434 -0.0006847762133877501 -0.0004296539684107221 -0.0003399842340311055 -0.000351489592264808 -0.0003045187836067506 -0.0002156628418000364 -0.00013956425857191028 -0.00016745469900037295 -0.00017005546120346527 -0.00014897362323734145 -0.00019140949603706035 -9.939809027300551e-05 -2.311729560490667e-05 -3.415345217434075e-05 -5.3520189540823184e-05 -1.1477314390242984e-05 -4.972456183876804e-06 -1.0879005923744673e-05 -9.983079746963392e-07 -1.4032205137358706e-05 -5.65162579431563e-05 -8.723636997206041e-05 -5.721459202847066e-05 
0.45924671757228336 0.31849475517664894 0.23427060102138136 0.17635014564268978 0.1416429086739772 0.11354602490045951 0.09394997147622942 0.07868910618083386 0.06774605129034023 0.05867612328838875 0.0506014096634366 0.0450993893008453 0.04008039054968057 0.03591925829304142 0.03246713035626468 0.02947507741628798 0.02673821810915894 0.02452756757392363 0.02247553341692418 0.020682019851538815 0.019125228839733426 0.01780215706236498 0.016535749654673082 0.015415665221113775 0.014470241144354053 0.013576791763005682 0.012764922526644884 0.012021800996420143 0.011319639776470075 0.010763258955409288 0.010213301946086701 0.009722275274485903 0.00923098412450466 0.008783470018709818 0.008433425372229674 0.008050292455676867 
0.7664284193539433 0.32368737528907576 0.15232932611981542 0.07488653739218333 0.05232568075889847 0.039676051800344836 0.02318871567683018 0.009682658325670024 0.003576146158705651 0.0020318293594255026 0.0009719537112254261 0.0007005955793543526 0.000122826216641823 0.00036157312690877186 0.0006047365403302436 0.00031055339398721143 5.253867336215839e-05 0.00011827697293471709 -4.753354924588452e-05 -8.074791904038706e-05 -1.7784000753525048e-05 -0.00013714916834049062 -0.0001625361896362083 -0.0001518627293851327 -9.266686782244625e-05 -3.582674709583033e-05 -9.532386007120665e-05 -0.0001261331168623512 -0.00012222421456714377 -0.00013196559925264658 -8.330674366552326e-05 -5.5931084884862035e-05 -6.56860657886174e-05 -0.00010813558202094753 -0.00014524181313373312 -0.00014769373030833034 
13.0544026834266 5.883109291772329 3.070846453871055 1.6628390605943155 1.0813474049674696 0.7116214709221234 0.4814609161511725 0.33336948816754924 0.2464926586272923 0.18306196273258532 0.1337653572744116 0.10740698233959103 0.08489272474613814 0.06827621745069963 0.05585152397061182 0.046235147435360634 0.0385563431831851 0.03285512615201255 0.027414089401453116 0.02290361418852535 0.01961490753023307 0.016864075622969345 0.014735000950227522 0.01298771594854287 0.011554637721983882 0.010109877253744484 0.008804447376007454 0.007854477979355281 0.0069443053739413636 0.006187462413404164 0.005687929630156581 0.005180350933021038 0.0046783001654985045 0.004159301414053592 0.0038517788747147313 0.00348836318838371 
108.32334749614607 33.608102912120444 12.738639083669085 4.331256077203024 2.393195156558555 1.4377970714114128 0.7718794911310296 0.2673925264523859 0.1015119354840355 0.06538408208985007 0.023067966396876232 0.020102587839657116 0.006243174804797987 0.012785955846771252 0.014972718412131512 0.007652720779765527 0.005189133657047162 0.00816069552706407 0.0019282589240449774 0.0004652737490985485 0.0018802589974321873 0.0005743754964759425 0.00017323156620511858 0.0003072772993868539 0.0011814894920432468 0.0015264042861247904 0.00013901740057746442 0.00032692748205542056 -7.133610864783264e-05 -2.2639546531323464e-05 0.00015014332658213966 0.0004222040874453322 0.00021688866587795267 0.00011017271526329285 -2.130948605056811e-05 -0.00011888363042702994 
2157.5344107546507 638.1770410683664 240.2977097063202 79.08045385768096 40.84650772995694 22.492233648351075 13.081412805484455 6.865633743046453 4.382751194347411 2.616084258508829 1.584128891226797 1.1734131911882126 0.835091573766087 0.6110689272872566 0.4378676599596054 0.33312166835333995 0.27367610781752205 0.23693496429288785 0.16147764637532994 0.11773991984297934 0.09397119397948975 0.07219147471604713 0.06185467035900798 0.05492900864786416 0.050241709150442806 0.04018404097836086 0.030314058151958152 0.02505239369542434 0.020941071876510946 0.016194611055255357 0.015017922198006302 0.013524113846339428 0.011926319487599667 0.009384947628984085 0.008082585554856875 0.006988764117587626 
37123.32972293049 8984.084929570188 2851.4679428776158 538.5031930817598 220.82989371202993 113.56885280924043 60.258234440971535 12.520931275653213 4.118959823950659 2.371554623262505 0.19416938985549953 0.4914851841262655 -0.09611486046802986 0.4080833549382419 0.3828754460844263 0.15454051716976877 0.17224180815809143 0.3770717146071502 0.040778294031935294 -0.0117551347333036 0.032839267200923554 0.013425234756998175 0.00466033902760296 0.008777067302245038 0.039247963143355366 0.04391032739731413 -0.008226937408456765 0.009108159661192775 -0.0016805461361408896 0.0013538600066830904 0.0026608718031190487 0.007162927138178025 0.0028776070329474914 0.0023434206535580294 0.0007333970278188843 2.05283781571965e-05 
