ach_3GPC_fnl0_sim98_biasMatched
0.023084350537662376 0.012394762085586495 0.006686771065244707 0.0036409549175964563 0.0033940124145950424 0.0040178992464782225 0.002693529998724069 0.0005887800514930412 -0.0006489392619511649 -0.001016532179119725 -0.001082740163438594 -0.0009644946919479423 -0.000915385697248845 -0.0008044454164740428 -0.0006695829011020231 -0.0006051733496906038 -0.0005808526108023365 -0.0005516172336869303 -0.00045934865715780755 -0.0003559350401135243 -0.00028268442241151403 -0.0002270530051918487 -0.0001439199096434498 -0.0001331759383045596 -9.146548655176019e-05 -0.00011161939300699728 -0.00019473875163506142 -0.00016195480147165173 -0.00010212118983713433 -2.623234460614107e-06 2.8372994663514444e-05 6.0514881039834835e-05 8.335566550554332e-05 9.020349013579849e-05 7.40646780035341e-05 7.945806432435594e-05 
0.4677728669089728 0.3254561092506622 0.23927967867222533 0.18076270206290104 0.1445723558212793 0.11530579264998995 0.09538883702857354 0.07925471055464273 0.06835741089329493 0.059048805905200216 0.05118763169173529 0.04534165935304263 0.040190132117168084 0.03599990711863992 0.032540959823390024 0.029689239138638537 0.027092546121930895 0.02499836166663333 0.022997416405568762 0.021242930603793564 0.019752296535489232 0.018438493683073758 0.01715919406452038 0.016025686859496586 0.014983174277865385 0.014070645459327579 0.013231815511033166 0.01250264561667578 0.011822084720529891 0.011239563994173288 0.010669772688412021 0.0101948544738189 0.009668789658678494 0.009225449708651322 0.00882494284419892 0.008413299754931087 
0.7949971804555959 0.33086379854960934 0.15435431773054747 0.0775836304598824 0.05259791108776513 0.03775403480632934 0.023092065836795073 0.010940779534879354 0.005118883624304686 0.001693957749072068 0.0004604006694179118 0.0002398039951307601 -0.0002224349691081677 -0.0002664451602987584 -0.00023504930353101855 -0.00024132490979882483 -0.0002751679188274845 -0.0003066488571047226 -0.00019351095528430214 -0.00022683073752577157 -0.00027475424604058937 -0.00026729280147876354 -0.00027207017426736694 -0.00019715557807840312 -0.00027450494841046384 -0.00031564256428298295 -0.0003937157603721116 -0.0003478084546078188 -0.00024963583648191786 -0.0001997609642180726 -0.0002173503589401424 -0.00024051233935625224 -0.00023875517554059996 -0.0002300535472084019 -0.00022393474217878025 -0.00022316903455304598 
13.28798246205362 5.993402778353707 3.1401974371640335 1.7642848069016814 1.1390442590946304 0.7216319743595437 0.49374252665887103 0.33353705629260094 0.24823870041473842 0.18523052708552218 0.14074140577775057 0.11032562495861627 0.08606245062004884 0.06838433943164812 0.05636817359183011 0.046188098570750645 0.03862817438745454 0.033733423189307714 0.028569803257807915 0.024471590551631017 0.021403596321734424 0.018450985345485 0.01577421847166362 0.013905878663330479 0.01202609727410245 0.010736432460136692 0.009420269034243796 0.008600789464706509 0.007713760718220344 0.006947406408210111 0.006308857300390495 0.0057992601192568645 0.005103016424234096 0.0047181324561887455 0.004309826433012237 0.0039003874818162015 
107.3424775222723 31.048223087079155 10.33618122021745 4.261574303048208 2.443897813500699 1.312779142893124 0.7123574311898109 0.34912835745017506 0.16213772317271932 0.06927833546171987 0.03750438915847236 0.022984819185820207 0.015223897572645667 0.001308482120735208 0.004677526684736021 0.003318691569556103 0.004260324291989682 0.0014635185414180834 0.0017208731540854188 0.0016514959737792233 0.0011820627236063027 0.0010738572034280733 0.00020812123104575457 0.001437810037386061 -5.396701585038693e-07 -0.0002460557396723834 -0.000810317518487272 -0.000470633893693152 0.0005232616776143097 0.0005816759000084316 6.891819902371439e-05 -0.00029326470037631836 -0.0003550073940386209 -0.0003798941756877667 -0.0002665252717624015 -0.0004155039254156723 
2040.5277717420306 599.226623502814 202.01101401821208 85.15946281168624 45.860830343871974 22.671497205018035 12.75124449262051 6.998523929046953 4.316546086163552 2.961792571463479 1.869492944637666 1.2808386339497484 0.9308072052314835 0.6219458146031464 0.4486333077382986 0.32712388770548106 0.2479279774873342 0.21253423471328303 0.17686120328476118 0.13843530319123942 0.11211004569994405 0.09679047152445501 0.0667039674118366 0.057127449616830604 0.0441280891584653 0.03909917274104371 0.03077694682239681 0.030350010526124006 0.026100799075650764 0.021402366205531036 0.018716485415207793 0.017110343899621624 0.012927967498823734 0.011918338923492608 0.01016496274592515 0.008746975288313414 
32308.31917171349 7371.439234068759 1313.565856320194 470.20019562728265 247.3247284582244 111.71188823226692 50.803317818303036 24.75708405018112 7.162833784958801 2.6600166122878677 1.6926373748954404 0.6779220068432589 1.0111270942232689 -0.17387691415590098 0.11751467349171969 0.08138778022528959 0.11299478595255846 0.012067963306542102 -0.004537679504762187 0.023298764621001222 0.02866994764770662 0.04991523249833572 0.010899881132378957 0.035890539060503386 0.005096636449317742 0.002760722523886761 -0.0067284843964121824 -0.01005456473389442 0.01627950429107269 0.014659463648713674 0.003643170889025455 -0.001318745080073838 -0.0024638570215266106 -0.003071568855050467 -0.0005941184333547568 -0.0028089201028473707 
