ach_3GPC_fnl100_sim51_biasMatched
0.025771482839908783 0.01436118760285211 0.008373132284608065 0.005093840793514069 0.004672612299926267 0.005332709983475076 0.00402643154074829 0.0016824107733837644 0.00044898179461963023 3.423125487260157e-05 -9.739726545730809e-05 -0.00015251845935810652 -0.00014445483162576112 -7.732687904079126e-05 -6.94715038621883e-05 -4.258514770072804e-05 5.101538650401189e-06 -0.00010328022673225881 -0.00015192989237549075 -4.368936236784233e-05 -8.225369940852846e-05 -0.0001171928104044822 -7.741019444823069e-05 -7.43210267605021e-05 -3.7462445688285467e-05 -8.401415966374512e-06 3.657292840835801e-05 6.880772775673842e-05 8.966327810841672e-05 0.00012074771450705975 0.00016103439866287713 0.00013691633658324207 0.00015015874193490217 0.00014489015981547328 0.0001404596901617257 0.00010364031873140141 
0.4855216715407999 0.3400944150576082 0.2521694936298511 0.19203506552161095 0.15531993692918697 0.12434831660169071 0.10349171997350538 0.08664217717046616 0.07475469639998593 0.06486337590511616 0.056309600955632984 0.05012278504884705 0.04462679870831721 0.04016258333068152 0.036254025098119216 0.03303679008846635 0.03016327572390771 0.027631240142858175 0.025411868347669397 0.023596035019794785 0.021869639490978265 0.02043764201096038 0.019120317923594785 0.017877859399241847 0.016790155924047152 0.015812302414265123 0.014868745626144982 0.013975087948735558 0.013181101871642667 0.012484266412327097 0.011846681443660826 0.011313755105916526 0.010795406848631856 0.010348353587115462 0.009964819370797063 0.0095588291285406 
0.9124837754973 0.3926000715783301 0.18803004726686506 0.09705764677542764 0.066521898174802 0.04984568595948499 0.031846250187990914 0.015495867475374245 0.008485400541099638 0.004567997043675739 0.0027657532806176673 0.0021826287672834905 0.0016054522884866044 0.0009483753255599376 0.0005888434790309033 0.00038327943454139016 0.0003286517934149155 -0.00024732804216204827 -0.0004012316347437663 -0.0002637484640204311 -0.00043744642581975877 -0.0004938519455562439 -0.0004600167440689494 -0.0006038195427253033 -0.0006454667496303117 -0.0006559615081039527 -0.0005778444208392881 -0.0006205666114680127 -0.0006575083428546385 -0.0006453622550609964 -0.000581566726263599 -0.0005916911687282396 -0.0006153675783922856 -0.0005941132759566248 -0.0006131673754750728 -0.0005858134240973407 
14.858846880747816 6.709156987632975 3.5330790548666124 2.0057563348071983 1.3306663132407017 0.8582296332881257 0.5796173547828642 0.39451099240410586 0.2970143782847164 0.22214112179968115 0.1646628604453256 0.13421817162708638 0.10768352043007337 0.08702816221582049 0.06952268336898453 0.05757772537124864 0.048939948835331516 0.040899402517877076 0.03481399499942024 0.0303052457683722 0.02607575205569474 0.022555625330726428 0.0197979270237112 0.01709169048257692 0.01504962945717355 0.013416459029887001 0.011956770359981954 0.010427680755695567 0.009381633879919592 0.00865490330181768 0.007686888295563273 0.006962868895693942 0.006372323920030859 0.0059485764903216215 0.005388306185607043 0.0050158376436215705 
129.91171892515388 39.35893289390663 14.454673200710946 6.096620607983518 3.2333404840396565 2.0349422287814356 1.1076699625327353 0.4375359189625181 0.27587070565391697 0.11368913438758875 0.06835088588626953 0.06047412786849418 0.06204694656210906 0.03619321618158507 0.02152118945281961 0.011172595578653405 0.010059490635051809 0.0040120464833900155 0.0016654872808242662 0.00460810408046318 0.0015465066805215413 0.00020631754659130693 0.0005779444788879081 -0.0005768308682699502 -0.0015406004500170397 -0.0014595058699112644 -0.0009527007216710431 -0.0018052200427379533 -0.0018067331350804451 -0.0018891513012477142 -0.0009949494763982008 -0.0008968174952203378 -0.0010586703378692214 -0.0008652218907399906 -0.001157778317006515 -0.0008632033380372499 
2439.6756979920347 689.0641510556053 259.3206889000771 108.62479183199233 56.73755503829167 31.52026438937749 16.899976552019563 8.285384816255927 5.789670480316334 3.5591841736530223 2.1303956607567125 1.744501147895611 1.4587241914583173 0.9591142697282203 0.6319332933278083 0.4680109778962635 0.37225310345313295 0.29790521970555767 0.22645156320039975 0.1878191770640449 0.15000246009089382 0.1170456443870755 0.0963542086755095 0.07770806592361378 0.06260202545176717 0.05302571960560115 0.04469924746461714 0.03590288554855857 0.031474954003630005 0.03349691026702906 0.02334519801128886 0.019696080180181267 0.018318707465214096 0.01777338400650979 0.013301494049422718 0.013074670124036136 
40232.77236812025 8564.706665115971 2488.5275249515166 890.2904840200678 331.04996273483596 205.64982320299225 90.05693414758804 23.29424419462066 17.715137616951132 3.8807044071792043 2.368531492049539 2.146448889851014 4.476728844860975 1.643545769230423 0.8459683726795342 0.2608573615432653 0.23429238787828502 0.10489925572284395 0.045162443075561366 0.1378921147791446 0.06156166981585083 0.015065300264090706 0.025249999906787498 0.0015544607507235039 -0.019234842151677367 -0.01609799361406568 -0.004982207210796111 -0.01968980681991664 -0.01796587511880367 -0.0263689601783195 -0.004147903863281479 -0.0007510245853650703 -0.0013941088391191522 0.00034065715905092793 -0.004604107760147821 -0.0015066068199653107 
