ach_3GPC_fnl0_sim88_biasMatched
0.022748836209632726 0.012044478350440917 0.006470998201550561 0.0036881100805452147 0.0036984449221708097 0.004302755039666328 0.002718053214327338 0.00045876274781145825 -0.0006874030765669877 -0.0010169002510206774 -0.0009041832430909877 -0.0008348021386183433 -0.000829132635061287 -0.00073085178620515 -0.0006186285261777496 -0.0005586354516022911 -0.0003933798937476203 -0.000327806854995594 -0.0002574062637792048 -0.00018584643653467373 -0.00011412381377165754 -8.865403136467955e-05 -0.00011913065583759022 -7.700590793139372e-05 -3.9890366851088196e-05 -6.848644591512952e-05 -2.7445224566568238e-05 4.6455666523655416e-05 6.576453695471386e-05 9.92348440727428e-06 -4.746038031094762e-05 -8.43989140013933e-05 -0.00011189905424597968 -8.665141399041859e-05 -0.00011815291275995803 -0.00014023734947665856 
0.4652313137930006 0.32418713683022604 0.2392050114218148 0.18008848095415528 0.1446357036925985 0.11544711348406879 0.09569842442928111 0.07978569762880751 0.06861141902099555 0.05932005717508301 0.051291079459883634 0.045823530928468414 0.04084514517258346 0.03654969610187122 0.03285578204662925 0.029823347575984996 0.02694962419674167 0.024697256796495707 0.02262270125726497 0.020936175551312455 0.01938567436653795 0.01810911300682071 0.01686215505597371 0.015767325291141707 0.014806151861055187 0.0139492571682784 0.013123838175464054 0.012318370962736512 0.011619482321027696 0.011034574886906599 0.010505682000996924 0.009991698311152089 0.009511369019601434 0.00907475120040141 0.008712009687237092 0.008334364820382708 
0.7966675644585773 0.33664701316584766 0.15991474551371632 0.08274109983782862 0.05767758691613981 0.0419479972998221 0.024731202838058478 0.011245425155412865 0.0047229565680073655 0.0022198884447170012 0.0012726243295230026 0.0009436470780820506 0.0008069825058503362 0.00044892418468151467 6.583357553531826e-05 3.0463356991962622e-05 -7.127027799626119e-06 -3.1814468119616845e-05 -4.780927482625911e-05 3.953234758499257e-05 -4.884907974212746e-06 -7.826683667755946e-05 -4.517913952149689e-05 -5.0235005506439234e-05 -8.65777037385226e-06 -0.0001263171674883545 -7.905353003404145e-05 4.164953004178576e-05 -4.6523727946292285e-06 -6.069910144057007e-05 -4.5190139046889575e-05 -6.0345568777722355e-05 -8.851308673879685e-05 -6.668321843455599e-05 -7.524232669069554e-05 -7.416662135212217e-05 
13.125539650864885 5.990996313906717 3.1611172409620143 1.7741380938285076 1.1373901930325494 0.7357507812054191 0.49524830595155406 0.34760648361705143 0.2506048961695176 0.18450307597677887 0.13665205209762338 0.11044100646740525 0.08870037322600019 0.07052422878011144 0.056711086807106716 0.0470810200193802 0.038027892485344564 0.032296428771432614 0.027115157539590158 0.023576469650325962 0.02050626041868995 0.01773914114313618 0.015650980929187864 0.013577567204467313 0.011820133248741666 0.010706705737444384 0.009335962913277642 0.008170903870231458 0.007354940819714946 0.0065789804210301395 0.0060238888739790625 0.005373740377239099 0.004849680638390515 0.00448014974626856 0.004142891528273872 0.003867494338479308 
106.2302564307706 33.32644386448788 11.826137904559479 5.046560934372081 2.6148720183005465 1.576087666297243 0.7535045021832125 0.4045371403722295 0.15454826824993648 0.08451564558811356 0.04479219236103751 0.02908141760221963 0.026643317737970695 0.015996179620765872 0.004964348413568572 0.007505287232033009 0.0023525100725301073 0.0036415969724175974 0.0013203457462086547 0.0024603545358208747 -0.000531020744457929 -0.0005607689848364302 0.0008911681144262593 0.00047072061502070303 0.0003691887418326989 -0.000612091500775651 -0.00024390646093790753 0.0007898107433856636 0.0002891143526599715 4.1670135948575286e-05 0.00018266364086607278 -4.588653021743575e-05 8.85971015936268e-05 0.00021798531701344183 -9.863117984705554e-06 2.2642391681765263e-05 
2014.469036071304 599.7041961255566 211.93272722141432 90.75093755996322 42.53738695658134 24.366354338651036 12.486637319006837 8.564293276870307 4.5062034616845015 2.712449948741682 1.6985603413381603 1.227652827491036 0.9599836818327604 0.6405812980169652 0.4427253199749214 0.3588012386559619 0.2435590474791173 0.193736569694127 0.1518957756633155 0.12599853458242247 0.11846898804044799 0.08353253260303552 0.07170175650034369 0.05617033534712839 0.04407913116201953 0.04066823957950725 0.031111146990123555 0.025294359226112288 0.022999582742468196 0.01855013347628459 0.01605991043499216 0.013134877590474088 0.01146593213805901 0.010703944689501216 0.00907033752507313 0.009011292032482361 
33091.7801421604 7645.555799437417 1845.9471494555942 691.8444120618726 225.04670608284883 141.27011925958192 47.27485594663677 36.28135611190874 8.935337524454818 4.01989143419976 1.9225882788843853 0.9748130291040165 0.5187657687169339 0.4072991068253496 0.06949433948115502 0.31207334229022154 0.003642033437176255 0.08472382120960488 0.009344073718996485 0.04847262250195436 -0.11715934185397567 -0.025481445165717667 0.015895650361107412 0.011593564603547341 -5.1282382315869685e-05 -0.012608444535107066 -0.006389876794117356 0.009876846649506329 0.0023428649166297747 0.0006489988064329676 0.0026372743418874986 -0.0009635574069955988 0.0030096114153355153 0.004515817605722457 0.000592892076982589 0.0006801633327343668 
