ach_3GPC_fnl100_sim42_biasMatched
0.025020504914302192 0.01381307589698632 0.007930990894586695 0.004753360432985346 0.004644252308974542 0.005296875203674308 0.003701664262463679 0.0013820095869347738 0.0001937637659621074 -0.00021277518249286165 -0.00029781022491099155 -0.00027141937075616265 -0.00025740261293468977 -0.00025104165225220437 -0.00012787082966318574 -0.00011218812851028719 -8.141515126188139e-05 5.2267681350720825e-05 8.500565209177752e-05 6.223225211888857e-05 6.63604912707943e-05 6.52696740606677e-05 5.505821651891029e-05 6.115079298917807e-05 6.230906215692266e-05 8.39662017888004e-05 3.187641321539051e-06 3.0830374280711805e-05 9.992283837694034e-05 8.605841101619837e-05 8.686290809840445e-05 0.00014145921307269686 0.00013582995293314666 0.00017633500189710336 0.00016917510966582328 0.00020398326371103627 
0.4810527692491995 0.3370039035788711 0.25046687334983975 0.19041589791416386 0.15328742371543694 0.12280976524804373 0.1021695918408477 0.0859728215195844 0.07425852807703269 0.06455368617502201 0.056075590926414384 0.0499718490875212 0.04456097383299599 0.040084388748213774 0.036180005563939695 0.032899805889480285 0.03005941389951985 0.027654326235623885 0.025422421743264124 0.023498527613748647 0.021752046144720122 0.020333066361710454 0.018975475662418414 0.017746702691037643 0.016686219121681778 0.015722823962260355 0.01483305316665139 0.013994982816449845 0.013235749214380347 0.01265676163540587 0.012046487899090658 0.011471685656772437 0.010938153632694302 0.010470762437087309 0.010029370716392814 0.009608413357544983 
0.8585783818043564 0.3756976856089046 0.19042170330686542 0.09927256298496497 0.06688686292394196 0.048690690664109144 0.030172683572248754 0.013473401237653957 0.007177732933515479 0.0032714707841521354 0.001283697811883683 0.0009684462004655713 0.0006914096797648132 0.00035484203316839865 0.00018744693117871155 -2.2900916988299252e-05 -0.00020134091524264276 -0.00017266040406018287 -8.542888947935986e-05 -0.00015817943106394178 -0.00020430238907450976 -0.0003278198681841705 -0.0005146147887557751 -0.0004708708755543333 -0.0005574074568626622 -0.0005536069544153419 -0.0006440738907980519 -0.000613822585349244 -0.0005395726527968483 -0.0005882342030659671 -0.0006369876864674079 -0.0005986480049811995 -0.0005779096263083479 -0.0005702556490290995 -0.0005303667466261232 -0.0005640208815974815 
14.412263663444532 6.647046236532522 3.620109168136042 2.013788349148989 1.2809736440407968 0.8211709828370528 0.5614409271869081 0.38701511906818475 0.2931940924978527 0.21871186001929419 0.16473534131084352 0.13110262035510833 0.10393327609312772 0.0840881691868163 0.06967793846252165 0.0576362335195228 0.048309741940709985 0.041534324054285095 0.03508818220375999 0.029917129633676896 0.02508715935868794 0.022359003119775497 0.019623297151521706 0.016957105158083432 0.015037363316576728 0.01350480152423525 0.012116509997403152 0.010740245523278385 0.009523545721575872 0.009009697748704595 0.007931050948277469 0.007236876635314646 0.006642945909449024 0.006152775705654867 0.005464748572494194 0.005075012256898329 
125.04820248557542 38.61361048323144 16.29034107003195 6.144220311148266 3.2025552157811426 1.7680576524553513 0.9478941696940539 0.3721328213369891 0.2495185110249207 0.10526438519257307 0.03524366938441495 0.030709406187560833 0.020068997099119915 0.020009600720685004 0.014799214074701007 0.013559730687930595 0.003203936369883205 -0.0006322591708311585 0.0014422054207233943 0.0014529906670192284 0.0016336291876377365 0.001504164077839423 -0.0018820193737583099 -0.0004086091026062527 -0.0013985826972450076 -0.0015242368383747613 -0.002182858666789825 -0.0019197330047226967 -0.0006668339333163819 0.0006959224171342358 -0.001522552851705997 -0.001116736266570635 -0.0008286322559426075 -0.0013810086891588049 -0.0009152409960868632 -0.0010203925667739504 
2523.1206334725075 707.619311907604 296.20397058930604 108.92364723773912 52.687546600853274 26.538512634860137 15.30977935278081 8.494715928065489 6.149082781342425 3.4376434509465486 2.131213827562676 1.5723827446313792 1.1191405132242256 0.7995831908211424 0.6415758847309773 0.4929057246088552 0.37368892362900463 0.3139288914724315 0.25449318329253023 0.19767884311262002 0.13129030770627828 0.12204618786697766 0.10080002348428432 0.0792140160050845 0.06430319597136257 0.05551738193200635 0.048090734600411245 0.03982761097912491 0.032942255233626754 0.04850508019292246 0.024286319742795243 0.021181869702191203 0.01984028557548145 0.018903692320497267 0.013641131255326983 0.012373073294385627 
46306.486137600376 8759.895946468741 3246.718068276277 772.8504566409691 330.02144957903363 132.78352558435773 65.01491689940995 24.986399094698783 23.164348868957134 5.74894455830569 1.1516480357563113 1.0242843365427965 0.4285534628434206 0.6347017136071152 0.48037377752116933 0.6005422077204997 0.07948006601083936 -0.1534899176708581 -0.07523874579727573 -0.0690134296852704 0.02635866260748848 0.04893816141974855 -0.03389868896211812 -0.000635342002072199 -0.006974610930145953 -0.014427658950404949 -0.02548445806250566 -0.02101029952191394 0.006320148330593225 0.16932683538770613 -0.010579057040999673 -0.0034600174030207857 0.0026683208738356857 -0.011397337100546375 -0.004124562314905625 -0.003529598675826404 
