ach_3GPC_fnl0_sim52_biasMatched
0.022557920855204482 0.011526951904914016 0.005914025394553556 0.0030578798606935094 0.0029424648631449935 0.003946784346052209 0.002668995797974126 0.0006332111563867695 -0.0004615876121700479 -0.0007259675659644257 -0.0006678397595515343 -0.0006590516908019672 -0.0006361836300202994 -0.0005799831574961828 -0.0004963607726209952 -0.00047675844065171003 -0.00040537283990275887 -0.000336774152415127 -0.00027362827797877855 -0.00018907627503902044 -0.00011621199630184992 -0.00015973868727518827 -0.00017238078413398363 -0.00010433506239585579 -3.202587970069549e-05 2.2024150071431804e-05 4.023166343810241e-05 2.071664437447462e-05 -4.149306722188969e-05 1.8293178007201156e-06 1.6514915949159548e-05 -1.737994931787134e-06 1.2363606584115507e-05 1.3117352055081568e-05 1.3531544050859717e-05 -1.669076970542407e-06 
0.46234581516038653 0.3221888942367969 0.23754258197757955 0.17889307690676245 0.14395569606279604 0.11506814178496268 0.09506117452640285 0.07961945750816157 0.06866651647779072 0.059412137456343626 0.05164861437924034 0.0461008106647295 0.04101238493614112 0.03666560578204206 0.03300571457480145 0.030003373248538016 0.02733407726401266 0.025156832664954543 0.023128882352962236 0.021395138550226865 0.019732850317168905 0.018373690544819705 0.0170622388111602 0.015953582940593368 0.0149476771227707 0.014041528827430984 0.013217708321106685 0.012436155272054833 0.011744133943662855 0.011126101096844471 0.010546279683720617 0.010015470720159835 0.009474856026122216 0.00904511199495847 0.008638944885198596 0.008213217252155583 
0.7812291877678627 0.328948980898435 0.151141848040202 0.0766381953108107 0.054015024945854764 0.03962890928399161 0.02433944067907747 0.011955097225058817 0.005028095863861905 0.002901514262202792 0.0025559572352584032 0.0013543677597611576 0.0007901494868253701 0.0002622329948003908 0.0001227067002713963 2.924529699713772e-05 -0.0001674083099777559 -5.384807321941834e-05 -0.00017403621454089357 -9.66405328765927e-05 -7.544835068688926e-06 -0.00015184238911066195 -0.00019443106861945252 -0.00017180334674617192 -0.00018803083891263917 -0.00017221645183770217 -0.00019373444572309535 -0.00014538198510755 -0.00021429657271751843 -0.00021556661307474433 -0.00022458144535523572 -0.0001942461633315666 -0.00019046207427813176 -0.00018718881921549123 -0.00017350472574099288 -0.0001803567642378168 
13.125984766281581 6.014611377395136 3.1167988330493372 1.7444085164890788 1.142419620768044 0.7192119469716513 0.4887415306454366 0.3448991653713555 0.2534874122248425 0.19036873325959264 0.14634977007015698 0.11488386319924326 0.08940865914056151 0.07100162011760609 0.05815376789008925 0.04808369480076488 0.039514285662681996 0.03353570117826498 0.02840163235260464 0.02472942425031016 0.021004634463317833 0.018117964072427457 0.01562754033611027 0.014185356490920365 0.0122729982145912 0.010743831416963813 0.009429978805532695 0.00838417584390667 0.007544289169839018 0.006689361982607437 0.006084064463124876 0.005455392694475753 0.004854827724763394 0.004445863154888884 0.004063359709110634 0.0036694136923056185 
110.85067957360307 35.32084262340068 11.690965103004947 4.781815415964579 2.6237536523071125 1.4130050860462873 0.7574630355854775 0.42408808362513706 0.16409583773759148 0.08724910607736068 0.0901983551119945 0.04826283394716544 0.023053752165768607 0.007402608718084697 0.009360908380055459 0.006482639951290071 0.0016412674767980607 0.004135420101208152 0.002498521811250486 0.0034182115590858297 0.00299261163098021 0.0014737166609079472 0.0003101199977654546 -0.0006507580304031173 0.00012672805396026225 7.488724052320873e-05 -9.650533087192896e-05 0.000498410253412084 -0.0002031950890681062 -0.0004019771769070808 -0.00029060859117051053 -4.28529519249578e-05 -0.00029372193082790986 -0.00014902364183565477 -0.0001512041413666385 -0.0001634179646241948 
2212.5864054700965 694.7269025587112 215.94849057042398 91.17690981516465 45.28246055932022 22.27842698201233 12.684081682446433 8.497886154071702 4.872007881804562 3.1155630591166408 2.337900704722519 1.5067762958013655 0.8962873495872068 0.6150804628365018 0.4819937740824426 0.3694444481299141 0.2694010901617641 0.20654250326222903 0.16051922568891838 0.13505251201143026 0.10787075964194962 0.08446455669207094 0.06769258622078882 0.07220314059585102 0.04946496581516125 0.03979168035856566 0.03136213747485021 0.02743553168447758 0.024048659390413337 0.01900614460655538 0.017137611485264083 0.014391325352125624 0.011719698970296868 0.010363033980190652 0.009015712533832682 0.00798483199723726 
40382.77194335291 10893.155249651812 2011.7354885984369 735.1108728824103 253.30914849511802 109.85018011626909 49.5707015570317 44.900786038453646 12.282520421092869 3.2955360128722 4.883966494341694 3.2492594419046834 0.6303559024917034 0.09111233091455123 0.30699177256033006 0.16334671972153492 -0.007334301006311823 0.09572493095631159 0.08243885267910998 0.09702383739620893 0.0686498980594989 0.040212423140503065 -0.000157796843812104 -0.07498692419488827 0.0070275808108598995 0.0016605029128007945 0.0012403472566946397 0.010112862084027254 0.001128950415518116 -0.005088517338279487 -0.0015035228772046691 0.0032334370977127012 -0.0024181404087097063 -0.0004169388757271889 -0.0012479772991749508 0.000522321229523535 
