ach_3GPC_fnl100_sim98_biasMatched
0.026380991011785038 0.015040583516960224 0.008960517254494196 0.0055460357467724325 0.005042881776387974 0.005407712531363997 0.003927114584228141 0.0016811974051406246 0.0003147250513969198 -0.00015578280819716697 -0.0003152089181900308 -0.00025961113334684955 -0.0002720212980006716 -0.0002341027632302434 -0.00014344860465101457 -0.00011422377777957885 -0.0001321455597590919 -0.00014199599201356045 -6.1030086096547084e-05 1.6900551831926777e-05 6.918376734357867e-05 9.948232671683457e-05 0.00016085216685927882 0.00016403518739968863 0.00019074010220766378 0.00017657473433327868 9.811013043407692e-05 0.00011205944650380987 0.00016017067552086373 0.00024030217388665146 0.00027622049684290583 0.0003111166161391068 0.00032706516259387475 0.0003207708581479618 0.00030287869131240703 0.0003000185582906711 
0.49111356478446244 0.34339214104445404 0.25468384659436805 0.19373025374682473 0.15551941752069415 0.1249198626185339 0.10388782194837066 0.08708961980727847 0.07526388618257057 0.0653983782056997 0.05697994534546145 0.05080581957442078 0.045223028449654395 0.04067562356008826 0.036975742909130346 0.03383966242444344 0.031073681287896296 0.028765607781861526 0.026573585582365666 0.024683872236117878 0.02304105520774823 0.021597738916948 0.02018903527597199 0.018930530668577576 0.01777473531083118 0.016761999102114657 0.015814848657564624 0.014998472198019383 0.014246261573274056 0.01359449099654586 0.012951103842689056 0.012395247305370848 0.011808433877946636 0.011311818157697743 0.01084291897053128 0.010371546537894304 
0.9053955377829667 0.38544903487747423 0.18919857647033217 0.09863386725766797 0.06635200566700093 0.04694226906854168 0.029552759952441075 0.014847536109144624 0.007900518935524677 0.0035920772703173193 0.0017396642620235133 0.0010711691381803117 0.0001953200528827824 -0.00021102174670536956 -0.000341467901089122 -0.00027310502320574646 -0.00045605309959504813 -0.0005524713971634395 -0.0005200680468895122 -0.0005022444601285291 -0.0005713451903456304 -0.0005475691760879393 -0.0006098374235571725 -0.0005698566492905677 -0.0006620060422556998 -0.0006759042708115687 -0.0007605590465326183 -0.0007163249311743981 -0.000600216067088132 -0.0005522911299598889 -0.0005727683395051737 -0.000580853016587216 -0.0006029807902862368 -0.0005967991851750305 -0.0005859126463919075 -0.0005898271172849759 
14.765195424189002 6.6626482751690554 3.5875963111303886 2.0467490433575666 1.3262418231184598 0.8405447611988689 0.5789073665441115 0.40140519753712184 0.2995599625449855 0.22479316277925138 0.17275423344772523 0.1378456022990085 0.1081759150322717 0.08607845570734123 0.07196547816866687 0.05929032810179803 0.050581357761414134 0.044367300284684844 0.0377446931614495 0.03284518634554628 0.028783108776531535 0.024883830469929237 0.0216919556405898 0.01906534361639997 0.016796144199046556 0.01505587071738876 0.013382110655339377 0.012245775138999044 0.011167384816541493 0.01017908082660962 0.009260751968542957 0.008401008803527756 0.007657477095314366 0.007046149967152814 0.0064341612411509055 0.0059142512044467405 
124.09773065932106 35.70322074330842 13.589811286819385 5.669896415391696 3.252940809964843 1.7196463629404524 0.8843653877922618 0.44255913366370503 0.2343700162866857 0.12007113901179428 0.07130363231001784 0.04549447974459209 0.025817066519121752 0.005702592998759972 0.0032874003430188297 0.005930826563959597 0.0053724510566488335 -0.00044390664883831184 -2.733266212909209e-05 0.00073985584355705 3.580206059939541e-05 -0.0005469725859879178 -0.0017647473832527738 -0.00039644771137136223 -0.0013299225409957522 -0.0014434458498356905 -0.0019004437436753 -0.0018754068375901084 -0.0005202170421190236 -0.00039624287437906854 -0.0008498776258275311 -0.001142698507766527 -0.0014416088431006733 -0.001179025335044021 -0.0010662811519576549 -0.0013480150276941156 
2328.029470136294 652.2460956081796 250.6547839978587 108.92505974517675 58.18108228387612 28.79961864373347 15.413204588615857 9.114220789976194 5.739581134395621 3.7348220878589307 2.4637286765167374 1.8068731243337888 1.2823277614444932 0.8405233920236673 0.6432577286122066 0.4623775495192948 0.3741189637093176 0.31904147710106523 0.2596903275979404 0.21401407917376736 0.1723486921734179 0.1361999073562566 0.10631246033930167 0.08561657710982076 0.07295170182614534 0.06123074164822087 0.05175735058340408 0.04899998763695554 0.04399890935467369 0.03792284923883204 0.032687483890115866 0.027433308746751473 0.025327871315413 0.02109969627076475 0.0177758054528109 0.016321994642818447 
36473.47287267678 7182.536922534576 1984.6695531980124 648.9752366520197 355.4421284515992 175.05248086987467 55.3638692464983 29.698305916671934 10.233389767796005 5.695105976042437 3.2507161326955267 1.6230252185954555 1.5162633421965783 0.08419669756018723 0.046040815283805034 0.1500080775357905 0.19390487735468212 -0.048424469984218045 -0.010870764175567689 0.020060573325718353 0.023951956560144632 -0.01621359689744667 -0.03349366717755409 0.0021470315086024533 -0.008074617940234698 -0.008661380266537573 -0.0127890218978233 -0.03574105198066332 0.004584242386131681 0.009599678228493369 -0.0005572606926477284 -0.006001828068310709 -0.014985287602605833 -0.005121395124274834 -0.004595866641097955 -0.010519253326972833 
