ach_3GPC_fnl0_sim22_biasMatched
0.023225117536833262 0.012108473541282042 0.006533671714110423 0.003603494578529152 0.003345728541123474 0.004089700632824278 0.0027214170043241147 0.0005648867168684121 -0.0006020429494339852 -0.0009560417530174692 -0.0009534823956694538 -0.0007804638653090385 -0.0005890998089401958 -0.0004849860539001658 -0.0004649214105066467 -0.000367515329866156 -0.0003789397253219404 -0.00033066384078821995 -0.00016987315281721368 -8.654581268366176e-05 -3.984372853471292e-05 -3.189225160841095e-05 -3.827662920898291e-05 -6.976470152977158e-05 -0.0001464328825062721 -0.0002169679147174896 -0.0001798440038175848 -0.0002002052939476786 -0.0002134717752434099 -0.00016136201985000894 -6.109577787334397e-05 -3.4683813574821356e-05 -3.556137663924871e-05 -2.7584084971002377e-05 -5.154666827732722e-05 -5.224933969603606e-05 
0.471605109468856 0.3282910615879351 0.24140269101931397 0.18180467721813745 0.14620817467930564 0.117030252669474 0.09670750795586273 0.08102373544773739 0.06996620011153801 0.060557754387078895 0.05236368601768169 0.046363086563998755 0.0410894101585565 0.03673304938829114 0.03310986349999409 0.030106406292688122 0.027430245393312087 0.025171696493989735 0.023080456064569148 0.02135549116073277 0.019819232588714156 0.018516661729293837 0.01724509287500658 0.016143851123323304 0.015185250305385858 0.014287623630654382 0.013476744597622133 0.012717234813527767 0.01202033521165665 0.011450392139336258 0.010884636770345506 0.010361032870628303 0.009836840156680727 0.009385980527339202 0.00898453600497423 0.008612122226720208 
0.8327596626312966 0.35270253088400766 0.16585863329853562 0.08417124653707833 0.05895943258953755 0.044730445623798534 0.02639281367600208 0.013366024668049776 0.006967919830163124 0.0040481631969774955 0.0025305275977267343 0.002155393913122207 0.0018136552894459904 0.0016591200552044268 0.001022909645917158 0.0008780224569664761 0.0003882414178721477 0.000440415331643132 0.00041218295505425446 0.0003378359464162497 0.0002314460713968459 0.0001452608089988727 0.0001290756752042946 1.3566884205051618e-06 -0.00010373048644449388 -0.00016752320497247496 -0.00021365080385432557 -0.00021122932108010457 -0.0002913786456125233 -0.0002718732244218378 -0.0001802817918326425 -0.00013594538534027062 -0.0001718068602517218 -0.00014238376333992376 -0.00015772130741906052 -0.0001827417732925824 
13.904075698065034 6.2591736588949045 3.262222364180328 1.8126021520334639 1.1895101551340683 0.7717029722876542 0.507011460828752 0.35538565190394117 0.2628660497897737 0.1972981331335055 0.1461819941507419 0.11490760303685779 0.09131681545405815 0.07167488824918633 0.057936648712990146 0.04917695338223703 0.04051535108953621 0.033410188287261625 0.028436794645378606 0.024484729667161365 0.02138538249804017 0.01871978052408456 0.016025860885082295 0.014338512343915378 0.012636113326456254 0.011245957995340802 0.009986856747199253 0.008947853021544317 0.007820075929886396 0.007194270160993989 0.006638614838569499 0.0060398412815458906 0.005300794317302815 0.004831130893658443 0.004449594990407594 0.0042278111149579665 
116.42752994247552 33.85819971381092 12.24353377188032 4.672529332087892 2.8895512194666946 1.7657076167778074 0.7317781755914238 0.3487653539509078 0.21035591079230134 0.11403086342043565 0.06281326971255254 0.059508407946985406 0.04194846498019558 0.029070191024177315 0.016339378962223417 0.012690026095066734 0.0055063417003838626 0.006278409400932166 0.005331570574988861 0.005428261008267083 0.0023814794243702175 0.0019478845101010176 0.0017391620258515373 0.0010190508610537024 0.0006858994706824904 0.0007995243705435083 -0.0006037622907334177 0.0003355879154403098 -0.0005439180906353256 -0.0009106751542382091 -0.0005556385179215124 -0.00014258220386522872 -0.000469235717319361 -0.0002521530658415272 -0.00016724369464460646 -0.0005327035770080235 
2280.2962234195525 605.3078471010112 225.6748021535936 91.40057004321794 50.66285962173143 26.97549793963315 12.677692090285053 7.856778830101661 4.848986767241808 3.134968472643721 1.9251333928721222 1.3854163840984215 1.0360754253047186 0.6671165772786762 0.45671310882668614 0.39284045639797716 0.2782980987944637 0.19608830754566167 0.15987422052536507 0.13592024560707794 0.12429323345876876 0.09252615834196659 0.06967558662776786 0.0621736066578321 0.04993493532223064 0.04627091403405582 0.042983136188742395 0.03628804127453985 0.023346410398857754 0.021690713168592966 0.021705047929571515 0.01754692809775705 0.013744247049417237 0.011955079205163838 0.010758395846724025 0.011253860002403249 
38390.91018648155 6777.767612097279 1977.827833573092 499.9572238062876 331.86271472338746 158.18509420122908 39.6808969168936 18.18161489143965 11.04014210639214 5.374109007098092 2.7089482103160494 2.4783534261755413 1.4316922362072588 0.6206535360560177 0.35153240102518757 0.26689184475187744 0.08314655501314157 0.11446570815862321 0.08627412619112991 0.1311466450776793 -0.046317026169348824 0.03675815493690567 0.02215149032401682 0.008727005527985264 0.0155710309630315 0.027347851862051024 -0.02008540418166956 0.03967010107491158 -0.000152504665870176 -0.010916337387683862 -0.012585304517864788 -0.0007512422107881112 -0.006491243541027592 -0.004598224782391748 -0.0009365625689671894 -0.007424295536491663 
