ach_3GPC_fnl0_sim36_biasMatched
0.022780606605629607 0.012168501091683319 0.006587309584589279 0.003535922886587087 0.0033854455372120157 0.004070616381260181 0.0024169328191878292 0.00022073829240649593 -0.000790797093734356 -0.0010819064411089975 -0.0011567668653055363 -0.0010728240997077924 -0.0008573939382408762 -0.0007606733051446327 -0.0006800715653433043 -0.0005505953175298033 -0.00039845741939796656 -0.0003756837390188129 -0.0003517298631026023 -0.00037045116908134067 -0.00030928009656100213 -0.0002823709440491637 -0.0002548570914011081 -0.0002718887523588156 -0.00028292315091765357 -0.00027290962584698713 -0.00025058550519870486 -0.00016092755474475835 -7.045965522841182e-05 1.718866857736505e-05 0.00010304693203430641 0.00012205699259859788 0.00011522088808619879 3.702055799456972e-05 2.0134365539991052e-05 3.3246748000238144e-05 
0.4637360095747962 0.3237259970687749 0.23782500762726702 0.1788845937140616 0.14314199563256702 0.1139212477524604 0.09423066342023455 0.07878106032354666 0.06760416642248825 0.05854953156190298 0.05054235252917256 0.04478092131789394 0.0397987584626114 0.03569640255259658 0.03220704878085286 0.029364460698050644 0.026786655959659553 0.024584276652489957 0.022588814160634373 0.020827832282277213 0.019315561349796354 0.01801753395031194 0.016737786005391577 0.015667266510654018 0.014663900268312102 0.013752218672756394 0.01294450216716958 0.012231026494867235 0.011548950973767572 0.01093251818210556 0.010325410565135189 0.009849188706282472 0.009340692529003776 0.008893672382665599 0.0084919950601214 0.008123582391213816 
0.8125160248067754 0.34009821302202586 0.15651447496733845 0.07684493466430113 0.049282548412978765 0.037384134576069185 0.021962641317391358 0.009600854261013519 0.004131171535383687 0.00202041778131236 0.0008604208077186137 0.00030838243148946737 0.00032025047263480256 9.612185827460498e-06 -5.406832755978516e-05 0.000169922985497348 0.00013877519935700367 4.35081137451346e-05 -6.439353739772806e-05 -0.0002012208916835797 -0.00021529589339096858 -0.00014000786630764364 -0.00015092698613699244 -0.000179776988501106 -0.00023500868332722525 -0.00020781405003423287 -0.0002548304446078372 -0.00016199639962298206 -0.000165588563158732 -0.00010571575739845863 -7.216187653804781e-05 -4.1267322879953104e-05 -2.805214844610598e-05 -7.146702179361465e-05 -8.440077767591723e-05 -9.085619005206633e-05 
13.844802839044227 6.097009846101609 3.160942866815819 1.7428115840385072 1.1159529811310673 0.7050186602016515 0.4766798506998017 0.33734346022826733 0.24373069860280283 0.18108766286121195 0.13395132008185637 0.10668298870580009 0.08446076696027227 0.06754417980525768 0.05552746699945789 0.046959815999918136 0.03920241548556751 0.033068522429707 0.027693672152027702 0.0232940325132924 0.020023048923411772 0.01762348647237513 0.015298540688771548 0.013567291641640444 0.011668984164581338 0.010410091380264275 0.009046796087289838 0.008284981586048743 0.007319108816189418 0.006483083425619643 0.005784062200842202 0.005452355370399199 0.004888279367415232 0.004423446360850273 0.003970483099588607 0.003605919878238634 
131.49152755663832 34.730544074684104 11.625114846116789 4.404779852428627 2.1546866894122183 1.2830429350596255 0.7173828547271301 0.3296101051708352 0.15130408814045773 0.0814677927837979 0.03496233719588482 0.029677842918350014 0.026309345466883998 0.012573817748298593 0.007725321774368253 0.010914024522456246 0.007685788690546991 0.0041156801979907445 0.004646846914462929 0.0025765151413667596 0.0005146788175704318 0.0018193242489429567 0.000725720263910875 0.00036500501564683767 -0.0007076914102575986 7.315095365616466e-06 -0.0004337716873539735 0.00030416001654630446 -0.00016117979255226474 -0.00011902528230690252 0.00016209506444419365 7.091327568494031e-05 0.0004139442724420902 0.00034419634315382286 7.364102121753639e-05 -0.00012817011573736784 
2854.3501450957906 637.1862828424291 216.04141103427568 85.16597140995165 44.40247964159398 21.422672053459127 12.172995870637841 8.069737789590734 4.402016521147203 2.8066849723643377 1.6570516361355 1.2313258564530607 0.8741886078431219 0.6051232866740667 0.47563547338609374 0.3931625004531809 0.2794546887356797 0.22450865739559217 0.17262614985592564 0.12710873142914755 0.0993780443579104 0.08487668054045681 0.06620422483126921 0.06046732044929393 0.04768513291223874 0.04238225195901111 0.029169054042065476 0.027452661197351118 0.022206323039860098 0.017936061131126883 0.015227402704006835 0.01623605180947343 0.013775181452025371 0.011891946883194138 0.009333352977432404 0.007650485414408217 
62556.47132195654 8203.554902579035 1837.3500056028872 546.5994786853815 194.4082086102814 89.33352759530442 54.33472378099462 24.52047286399899 7.822876801267476 4.008027091511554 0.8299353092837719 1.215750844569709 1.1981416969014271 0.39066646669745014 0.12462563115044364 0.2698985945512687 0.22294443113393328 0.025244269810375555 0.14453319411449672 0.0813533387891071 -0.007697813718412761 0.04835986757495322 0.008760387941161258 -0.003320061000040931 -0.027990578868688734 -0.001026423742365425 -0.0033552784862203567 0.009249160271055443 0.0023284846436594933 0.0006994655957103851 0.003981207885645505 -0.0017626256119971078 0.012634663048073062 0.008861164494883219 0.002355918601736693 -0.0010066702667026219 
